digraph Tree {
node [shape=box, style="filled", color="black"] ;
0 [label="worst perimeter <= 106.1\nentropy = 0.953\nsamples = 426\nvalue = [159, 267]\nclass = benign", fillcolor="#399de567"] ;
1 [label="worst concave points <= 0.134\nentropy = 0.254\nsamples = 259\nvalue = [11, 248]\nclass = benign", fillcolor="#399de5f4"] ;
0 -> 1 [labeldistance=2.5, labelangle=45, headlabel="True"] ;
2 [label="area error <= 48.975\nentropy = 0.039\nsamples = 240\nvalue = [1, 239]\nclass = benign", fillcolor="#399de5fe"] ;
1 -> 2 ;
3 [label="entropy = 0.0\nsamples = 239\nvalue = [0, 239]\nclass = benign", fillcolor="#399de5ff"] ;
2 -> 3 ;
4 [label="entropy = 0.0\nsamples = 1\nvalue = [1, 0]\nclass = malignant", fillcolor="#e58139ff"] ;
2 -> 4 ;
5 [label="worst texture <= 26.0\nentropy = 0.998\nsamples = 19\nvalue = [10, 9]\nclass = malignant", fillcolor="#e5813919"] ;
1 -> 5 ;
6 [label="worst fractal dimension <= 0.122\nentropy = 0.503\nsamples = 9\nvalue = [1, 8]\nclass = benign", fillcolor="#399de5df"] ;
5 -> 6 ;
7 [label="entropy = 0.0\nsamples = 8\nvalue = [0, 8]\nclass = benign", fillcolor="#399de5ff"] ;
6 -> 7 ;
8 [label="entropy = 0.0\nsamples = 1\nvalue = [1, 0]\nclass = malignant", fillcolor="#e58139ff"] ;
6 -> 8 ;
9 [label="worst concavity <= 0.358\nentropy = 0.469\nsamples = 10\nvalue = [9, 1]\nclass = malignant", fillcolor="#e58139e3"] ;
5 -> 9 ;
10 [label="entropy = 1.0\nsamples = 2\nvalue = [1, 1]\nclass = malignant", fillcolor="#e5813900"] ;
9 -> 10 ;
11 [label="entropy = 0.0\nsamples = 8\nvalue = [8, 0]\nclass = malignant", fillcolor="#e58139ff"] ;
9 -> 11 ;
12 [label="mean concave points <= 0.064\nentropy = 0.511\nsamples = 167\nvalue = [148, 19]\nclass = malignant", fillcolor="#e58139de"] ;
0 -> 12 [labeldistance=2.5, labelangle=-45, headlabel="False"] ;
13 [label="worst texture <= 20.045\nentropy = 0.968\nsamples = 48\nvalue = [29, 19]\nclass = malignant", fillcolor="#e5813958"] ;
12 -> 13 ;
14 [label="entropy = 0.0\nsamples = 11\nvalue = [0, 11]\nclass = benign", fillcolor="#399de5ff"] ;
13 -> 14 ;
15 [label="worst radius <= 16.8\nentropy = 0.753\nsamples = 37\nvalue = [29, 8]\nclass = malignant", fillcolor="#e58139b9"] ;
13 -> 15 ;
16 [label="entropy = 0.98\nsamples = 12\nvalue = [5, 7]\nclass = benign", fillcolor="#399de549"] ;
15 -> 16 ;
17 [label="entropy = 0.242\nsamples = 25\nvalue = [24, 1]\nclass = malignant", fillcolor="#e58139f4"] ;
15 -> 17 ;
18 [label="entropy = 0.0\nsamples = 119\nvalue = [119, 0]\nclass = malignant", fillcolor="#e58139ff"] ;
12 -> 18 ;
}